digraph Tree {
node [shape=box, style="filled", color="black"] ;
graph [ranksep=equally, splines=polyline] ;
0 [label="X[0] <= 0.5\ngini = 0.601\nsamples = 863\nvalue = [374, 97, 384, 8]", fillcolor="#399de505"] ;
1 [label="X[2] <= 0.5\ngini = 0.474\nsamples = 421\nvalue = [69, 51, 293, 8]", fillcolor="#399de5a2"] ;
0 -> 1 [labeldistance=2.5, labelangle=45, headlabel="True"] ;
2 [label="X[19] <= 251.5\ngini = 0.04\nsamples = 148\nvalue = [1, 2, 145, 0]", fillcolor="#399de5fa"] ;
1 -> 2 ;
3 [label="X[1] <= 7.0\ngini = 0.027\nsamples = 146\nvalue = [0, 2, 144, 0]", fillcolor="#399de5fb"] ;
2 -> 3 ;
4 [label="X[7] <= 4.5\ngini = 0.26\nsamples = 13\nvalue = [0, 2, 11, 0]", fillcolor="#399de5d1"] ;
3 -> 4 ;
5 [label="gini = 0.0\nsamples = 11\nvalue = [0, 0, 11, 0]", fillcolor="#399de5ff"] ;
4 -> 5 ;
6 [label="gini = 0.0\nsamples = 2\nvalue = [0, 2, 0, 0]", fillcolor="#47e539ff"] ;
4 -> 6 ;
7 [label="gini = 0.0\nsamples = 133\nvalue = [0, 0, 133, 0]", fillcolor="#399de5ff"] ;
3 -> 7 ;
8 [label="gini = 0.5\nsamples = 2\nvalue = [1, 0, 1, 0]", fillcolor="#e5813900"] ;
2 -> 8 ;
9 [label="X[19] <= 6.5\ngini = 0.611\nsamples = 273\nvalue = [68, 49, 148, 8]", fillcolor="#399de564"] ;
1 -> 9 ;
10 [label="X[13] <= 1.5\ngini = 0.56\nsamples = 194\nvalue = [40, 27, 119, 8]", fillcolor="#399de583"] ;
9 -> 10 ;
11 [label="X[15] <= 0.5\ngini = 0.54\nsamples = 184\nvalue = [40, 27, 115, 2]", fillcolor="#399de585"] ;
10 -> 11 ;
12 [label="X[4] <= 0.5\ngini = 0.581\nsamples = 157\nvalue = [40, 25, 90, 2]", fillcolor="#399de56d"] ;
11 -> 12 ;
13 [label="X[1] <= 351.0\ngini = 0.525\nsamples = 59\nvalue = [25, 2, 32, 0]", fillcolor="#399de535"] ;
12 -> 13 ;
14 [label="X[16] <= 3.5\ngini = 0.48\nsamples = 46\nvalue = [14, 2, 30, 0]", fillcolor="#399de580"] ;
13 -> 14 ;
15 [label="X[18] <= 24.0\ngini = 0.434\nsamples = 44\nvalue = [14, 0, 30, 0]", fillcolor="#399de588"] ;
14 -> 15 ;
16 [label="gini = 0.0\nsamples = 10\nvalue = [0, 0, 10, 0]", fillcolor="#399de5ff"] ;
15 -> 16 ;
17 [label="X[18] <= 27.5\ngini = 0.484\nsamples = 34\nvalue = [14, 0, 20, 0]", fillcolor="#399de54d"] ;
15 -> 17 ;
18 [label="gini = 0.0\nsamples = 7\nvalue = [7, 0, 0, 0]", fillcolor="#e58139ff"] ;
17 -> 18 ;
19 [label="X[14] <= 0.5\ngini = 0.384\nsamples = 27\nvalue = [7, 0, 20, 0]", fillcolor="#399de5a6"] ;
17 -> 19 ;
20 [label="X[5] <= 51.5\ngini = 0.188\nsamples = 19\nvalue = [2, 0, 17, 0]", fillcolor="#399de5e1"] ;
19 -> 20 ;
21 [label="gini = 0.0\nsamples = 2\nvalue = [2, 0, 0, 0]", fillcolor="#e58139ff"] ;
20 -> 21 ;
22 [label="gini = 0.0\nsamples = 17\nvalue = [0, 0, 17, 0]", fillcolor="#399de5ff"] ;
20 -> 22 ;
23 [label="X[9] <= 0.5\ngini = 0.469\nsamples = 8\nvalue = [5, 0, 3, 0]", fillcolor="#e5813966"] ;
19 -> 23 ;
24 [label="gini = 0.0\nsamples = 5\nvalue = [5, 0, 0, 0]", fillcolor="#e58139ff"] ;
23 -> 24 ;
25 [label="gini = 0.0\nsamples = 3\nvalue = [0, 0, 3, 0]", fillcolor="#399de5ff"] ;
23 -> 25 ;
26 [label="gini = 0.0\nsamples = 2\nvalue = [0, 2, 0, 0]", fillcolor="#47e539ff"] ;
14 -> 26 ;
27 [label="X[16] <= 5.0\ngini = 0.26\nsamples = 13\nvalue = [11, 0, 2, 0]", fillcolor="#e58139d1"] ;
13 -> 27 ;
28 [label="gini = 0.0\nsamples = 11\nvalue = [11, 0, 0, 0]", fillcolor="#e58139ff"] ;
27 -> 28 ;
29 [label="gini = 0.0\nsamples = 2\nvalue = [0, 0, 2, 0]", fillcolor="#399de5ff"] ;
27 -> 29 ;
30 [label="X[3] <= 0.5\ngini = 0.571\nsamples = 98\nvalue = [15, 23, 58, 2]", fillcolor="#399de577"] ;
12 -> 30 ;
31 [label="X[16] <= 1.5\ngini = 0.536\nsamples = 88\nvalue = [15, 15, 56, 2]", fillcolor="#399de58f"] ;
30 -> 31 ;
32 [label="X[7] <= 2.5\ngini = 0.481\nsamples = 81\nvalue = [12, 11, 56, 2]", fillcolor="#399de5a3"] ;
31 -> 32 ;
33 [label="X[18] <= 25.5\ngini = 0.503\nsamples = 46\nvalue = [12, 2, 30, 2]", fillcolor="#399de587"] ;
32 -> 33 ;
34 [label="X[18] <= 14.0\ngini = 0.604\nsamples = 15\nvalue = [7, 2, 6, 0]", fillcolor="#e581391c"] ;
33 -> 34 ;
35 [label="X[1] <= 117.5\ngini = 0.595\nsamples = 11\nvalue = [3, 2, 6, 0]", fillcolor="#399de560"] ;
34 -> 35 ;
36 [label="gini = 0.0\nsamples = 3\nvalue = [3, 0, 0, 0]", fillcolor="#e58139ff"] ;
35 -> 36 ;
37 [label="X[7] <= 0.5\ngini = 0.375\nsamples = 8\nvalue = [0, 2, 6, 0]", fillcolor="#399de5aa"] ;
35 -> 37 ;
38 [label="X[1] <= 842.0\ngini = 0.444\nsamples = 3\nvalue = [0, 2, 1, 0]", fillcolor="#47e5397f"] ;
37 -> 38 ;
39 [label="gini = 0.0\nsamples = 2\nvalue = [0, 2, 0, 0]", fillcolor="#47e539ff"] ;
38 -> 39 ;
40 [label="gini = 0.0\nsamples = 1\nvalue = [0, 0, 1, 0]", fillcolor="#399de5ff"] ;
38 -> 40 ;
41 [label="gini = 0.0\nsamples = 5\nvalue = [0, 0, 5, 0]", fillcolor="#399de5ff"] ;
37 -> 41 ;
42 [label="gini = 0.0\nsamples = 4\nvalue = [4, 0, 0, 0]", fillcolor="#e58139ff"] ;
34 -> 42 ;
43 [label="X[13] <= 0.5\ngini = 0.37\nsamples = 31\nvalue = [5, 0, 24, 2]", fillcolor="#399de5ba"] ;
33 -> 43 ;
44 [label="X[6] <= 4.0\ngini = 0.172\nsamples = 21\nvalue = [2, 0, 19, 0]", fillcolor="#399de5e4"] ;
43 -> 44 ;
45 [label="X[1] <= 311.5\ngini = 0.095\nsamples = 20\nvalue = [1, 0, 19, 0]", fillcolor="#399de5f2"] ;
44 -> 45 ;
46 [label="gini = 0.0\nsamples = 15\nvalue = [0, 0, 15, 0]", fillcolor="#399de5ff"] ;
45 -> 46 ;
47 [label="X[1] <= 368.5\ngini = 0.32\nsamples = 5\nvalue = [1, 0, 4, 0]", fillcolor="#399de5bf"] ;
45 -> 47 ;
48 [label="gini = 0.0\nsamples = 1\nvalue = [1, 0, 0, 0]", fillcolor="#e58139ff"] ;
47 -> 48 ;
49 [label="gini = 0.0\nsamples = 4\nvalue = [0, 0, 4, 0]", fillcolor="#399de5ff"] ;
47 -> 49 ;
50 [label="gini = 0.0\nsamples = 1\nvalue = [1, 0, 0, 0]", fillcolor="#e58139ff"] ;
44 -> 50 ;
51 [label="X[18] <= 75.5\ngini = 0.62\nsamples = 10\nvalue = [3, 0, 5, 2]", fillcolor="#399de549"] ;
43 -> 51 ;
52 [label="X[21] <= 0.3\ngini = 0.408\nsamples = 7\nvalue = [2, 0, 5, 0]", fillcolor="#399de599"] ;
51 -> 52 ;
53 [label="gini = 0.0\nsamples = 2\nvalue = [2, 0, 0, 0]", fillcolor="#e58139ff"] ;
52 -> 53 ;
54 [label="gini = 0.0\nsamples = 5\nvalue = [0, 0, 5, 0]", fillcolor="#399de5ff"] ;
52 -> 54 ;
55 [label="X[14] <= 0.5\ngini = 0.444\nsamples = 3\nvalue = [1, 0, 0, 2]", fillcolor="#d739e57f"] ;
51 -> 55 ;
56 [label="gini = 0.0\nsamples = 2\nvalue = [0, 0, 0, 2]", fillcolor="#d739e5ff"] ;
55 -> 56 ;
57 [label="gini = 0.0\nsamples = 1\nvalue = [1, 0, 0, 0]", fillcolor="#e58139ff"] ;
55 -> 57 ;
58 [label="X[12] <= 0.5\ngini = 0.382\nsamples = 35\nvalue = [0, 9, 26, 0]", fillcolor="#399de5a7"] ;
32 -> 58 ;
59 [label="X[1] <= 249.0\ngini = 0.271\nsamples = 31\nvalue = [0, 5, 26, 0]", fillcolor="#399de5ce"] ;
58 -> 59 ;
60 [label="X[1] <= 224.0\ngini = 0.459\nsamples = 14\nvalue = [0, 5, 9, 0]", fillcolor="#399de571"] ;
59 -> 60 ;
61 [label="X[7] <= 6.5\ngini = 0.298\nsamples = 11\nvalue = [0, 2, 9, 0]", fillcolor="#399de5c6"] ;
60 -> 61 ;
62 [label="gini = 0.0\nsamples = 9\nvalue = [0, 0, 9, 0]", fillcolor="#399de5ff"] ;
61 -> 62 ;
63 [label="gini = 0.0\nsamples = 2\nvalue = [0, 2, 0, 0]", fillcolor="#47e539ff"] ;
61 -> 63 ;
64 [label="gini = 0.0\nsamples = 3\nvalue = [0, 3, 0, 0]", fillcolor="#47e539ff"] ;
60 -> 64 ;
65 [label="gini = 0.0\nsamples = 17\nvalue = [0, 0, 17, 0]", fillcolor="#399de5ff"] ;
59 -> 65 ;
66 [label="gini = 0.0\nsamples = 4\nvalue = [0, 4, 0, 0]", fillcolor="#47e539ff"] ;
58 -> 66 ;
67 [label="X[18] <= 116.0\ngini = 0.49\nsamples = 7\nvalue = [3, 4, 0, 0]", fillcolor="#47e53940"] ;
31 -> 67 ;
68 [label="gini = 0.0\nsamples = 3\nvalue = [3, 0, 0, 0]", fillcolor="#e58139ff"] ;
67 -> 68 ;
69 [label="gini = 0.0\nsamples = 4\nvalue = [0, 4, 0, 0]", fillcolor="#47e539ff"] ;
67 -> 69 ;
70 [label="X[18] <= 64.5\ngini = 0.32\nsamples = 10\nvalue = [0, 8, 2, 0]", fillcolor="#47e539bf"] ;
30 -> 70 ;
71 [label="gini = 0.0\nsamples = 8\nvalue = [0, 8, 0, 0]", fillcolor="#47e539ff"] ;
70 -> 71 ;
72 [label="gini = 0.0\nsamples = 2\nvalue = [0, 0, 2, 0]", fillcolor="#399de5ff"] ;
70 -> 72 ;
73 [label="X[1] <= 152.5\ngini = 0.137\nsamples = 27\nvalue = [0, 2, 25, 0]", fillcolor="#399de5eb"] ;
11 -> 73 ;
74 [label="gini = 0.0\nsamples = 2\nvalue = [0, 2, 0, 0]", fillcolor="#47e539ff"] ;
73 -> 74 ;
75 [label="gini = 0.0\nsamples = 25\nvalue = [0, 0, 25, 0]", fillcolor="#399de5ff"] ;
73 -> 75 ;
76 [label="X[7] <= 6.0\ngini = 0.48\nsamples = 10\nvalue = [0, 0, 4, 6]", fillcolor="#d739e555"] ;
10 -> 76 ;
77 [label="gini = 0.0\nsamples = 4\nvalue = [0, 0, 4, 0]", fillcolor="#399de5ff"] ;
76 -> 77 ;
78 [label="gini = 0.0\nsamples = 6\nvalue = [0, 0, 0, 6]", fillcolor="#d739e5ff"] ;
76 -> 78 ;
79 [label="X[19] <= 12.0\ngini = 0.662\nsamples = 79\nvalue = [28, 22, 29, 0]", fillcolor="#399de505"] ;
9 -> 79 ;
80 [label="gini = 0.0\nsamples = 10\nvalue = [10, 0, 0, 0]", fillcolor="#e58139ff"] ;
79 -> 80 ;
81 [label="X[13] <= 0.5\ngini = 0.654\nsamples = 69\nvalue = [18, 22, 29, 0]", fillcolor="#399de526"] ;
79 -> 81 ;
82 [label="X[6] <= 1.5\ngini = 0.593\nsamples = 47\nvalue = [15, 7, 25, 0]", fillcolor="#399de550"] ;
81 -> 82 ;
83 [label="X[19] <= 20.5\ngini = 0.525\nsamples = 39\nvalue = [7, 7, 25, 0]", fillcolor="#399de58f"] ;
82 -> 83 ;
84 [label="gini = 0.0\nsamples = 3\nvalue = [3, 0, 0, 0]", fillcolor="#e58139ff"] ;
83 -> 84 ;
85 [label="X[21] <= 0.7\ngini = 0.468\nsamples = 36\nvalue = [4, 7, 25, 0]", fillcolor="#399de59e"] ;
83 -> 85 ;
86 [label="X[21] <= 0.25\ngini = 0.616\nsamples = 22\nvalue = [4, 7, 11, 0]", fillcolor="#399de544"] ;
85 -> 86 ;
87 [label="X[19] <= 333.5\ngini = 0.477\nsamples = 16\nvalue = [2, 3, 11, 0]", fillcolor="#399de59d"] ;
86 -> 87 ;
88 [label="X[19] <= 107.0\ngini = 0.278\nsamples = 12\nvalue = [2, 0, 10, 0]", fillcolor="#399de5cc"] ;
87 -> 88 ;
89 [label="X[9] <= 0.5\ngini = 0.5\nsamples = 4\nvalue = [2, 0, 2, 0]", fillcolor="#e5813900"] ;
88 -> 89 ;
90 [label="gini = 0.0\nsamples = 2\nvalue = [2, 0, 0, 0]", fillcolor="#e58139ff"] ;
89 -> 90 ;
91 [label="gini = 0.0\nsamples = 2\nvalue = [0, 0, 2, 0]", fillcolor="#399de5ff"] ;
89 -> 91 ;
92 [label="gini = 0.0\nsamples = 8\nvalue = [0, 0, 8, 0]", fillcolor="#399de5ff"] ;
88 -> 92 ;
93 [label="X[18] <= 625.0\ngini = 0.375\nsamples = 4\nvalue = [0, 3, 1, 0]", fillcolor="#47e539aa"] ;
87 -> 93 ;
94 [label="gini = 0.5\nsamples = 2\nvalue = [0, 1, 1, 0]", fillcolor="#47e53900"] ;
93 -> 94 ;
95 [label="gini = 0.0\nsamples = 2\nvalue = [0, 2, 0, 0]", fillcolor="#47e539ff"] ;
93 -> 95 ;
96 [label="X[18] <= 161.0\ngini = 0.444\nsamples = 6\nvalue = [2, 4, 0, 0]", fillcolor="#47e5397f"] ;
86 -> 96 ;
97 [label="gini = 0.0\nsamples = 4\nvalue = [0, 4, 0, 0]", fillcolor="#47e539ff"] ;
96 -> 97 ;
98 [label="gini = 0.0\nsamples = 2\nvalue = [2, 0, 0, 0]", fillcolor="#e58139ff"] ;
96 -> 98 ;
99 [label="gini = 0.0\nsamples = 14\nvalue = [0, 0, 14, 0]", fillcolor="#399de5ff"] ;
85 -> 99 ;
100 [label="gini = 0.0\nsamples = 8\nvalue = [8, 0, 0, 0]", fillcolor="#e58139ff"] ;
82 -> 100 ;
101 [label="X[18] <= 45.5\ngini = 0.483\nsamples = 22\nvalue = [3, 15, 4, 0]", fillcolor="#47e5399c"] ;
81 -> 101 ;
102 [label="X[9] <= 3.5\ngini = 0.48\nsamples = 5\nvalue = [3, 0, 2, 0]", fillcolor="#e5813955"] ;
101 -> 102 ;
103 [label="gini = 0.0\nsamples = 3\nvalue = [3, 0, 0, 0]", fillcolor="#e58139ff"] ;
102 -> 103 ;
104 [label="gini = 0.0\nsamples = 2\nvalue = [0, 0, 2, 0]", fillcolor="#399de5ff"] ;
102 -> 104 ;
105 [label="X[8] <= 0.5\ngini = 0.208\nsamples = 17\nvalue = [0, 15, 2, 0]", fillcolor="#47e539dd"] ;
101 -> 105 ;
106 [label="gini = 0.0\nsamples = 15\nvalue = [0, 15, 0, 0]", fillcolor="#47e539ff"] ;
105 -> 106 ;
107 [label="gini = 0.0\nsamples = 2\nvalue = [0, 0, 2, 0]", fillcolor="#399de5ff"] ;
105 -> 107 ;
108 [label="X[13] <= 0.5\ngini = 0.471\nsamples = 442\nvalue = [305, 46, 91, 0]", fillcolor="#e581399b"] ;
0 -> 108 [labeldistance=2.5, labelangle=-45, headlabel="False"] ;
109 [label="X[1] <= 434.0\ngini = 0.589\nsamples = 156\nvalue = [80, 19, 57, 0]", fillcolor="#e581393b"] ;
108 -> 109 ;
110 [label="X[11] <= 9.0\ngini = 0.608\nsamples = 72\nvalue = [19, 15, 38, 0]", fillcolor="#399de55b"] ;
109 -> 110 ;
111 [label="X[12] <= 2.0\ngini = 0.558\nsamples = 65\nvalue = [19, 8, 38, 0]", fillcolor="#399de569"] ;
110 -> 111 ;
112 [label="X[2] <= 0.5\ngini = 0.624\nsamples = 48\nvalue = [19, 8, 21, 0]", fillcolor="#399de512"] ;
111 -> 112 ;
113 [label="X[19] <= 5.5\ngini = 0.573\nsamples = 36\nvalue = [7, 8, 21, 0]", fillcolor="#399de576"] ;
112 -> 113 ;
114 [label="X[8] <= 0.5\ngini = 0.659\nsamples = 25\nvalue = [7, 8, 10, 0]", fillcolor="#399de51e"] ;
113 -> 114 ;
115 [label="gini = 0.0\nsamples = 8\nvalue = [0, 0, 8, 0]", fillcolor="#399de5ff"] ;
114 -> 115 ;
116 [label="X[7] <= 20.5\ngini = 0.595\nsamples = 17\nvalue = [7, 8, 2, 0]", fillcolor="#47e5391a"] ;
114 -> 116 ;
117 [label="X[19] <= 1.5\ngini = 0.375\nsamples = 8\nvalue = [6, 2, 0, 0]", fillcolor="#e58139aa"] ;
116 -> 117 ;
118 [label="gini = 0.0\nsamples = 2\nvalue = [0, 2, 0, 0]", fillcolor="#47e539ff"] ;
117 -> 118 ;
119 [label="gini = 0.0\nsamples = 6\nvalue = [6, 0, 0, 0]", fillcolor="#e58139ff"] ;
117 -> 119 ;
120 [label="X[14] <= 2.0\ngini = 0.494\nsamples = 9\nvalue = [1, 6, 2, 0]", fillcolor="#47e53992"] ;
116 -> 120 ;
121 [label="X[18] <= 97.0\ngini = 0.245\nsamples = 7\nvalue = [1, 6, 0, 0]", fillcolor="#47e539d4"] ;
120 -> 121 ;
122 [label="gini = 0.0\nsamples = 6\nvalue = [0, 6, 0, 0]", fillcolor="#47e539ff"] ;
121 -> 122 ;
123 [label="gini = 0.0\nsamples = 1\nvalue = [1, 0, 0, 0]", fillcolor="#e58139ff"] ;
121 -> 123 ;
124 [label="gini = 0.0\nsamples = 2\nvalue = [0, 0, 2, 0]", fillcolor="#399de5ff"] ;
120 -> 124 ;
125 [label="gini = 0.0\nsamples = 11\nvalue = [0, 0, 11, 0]", fillcolor="#399de5ff"] ;
113 -> 125 ;
126 [label="gini = 0.0\nsamples = 12\nvalue = [12, 0, 0, 0]", fillcolor="#e58139ff"] ;
112 -> 126 ;
127 [label="gini = 0.0\nsamples = 17\nvalue = [0, 0, 17, 0]", fillcolor="#399de5ff"] ;
111 -> 127 ;
128 [label="gini = 0.0\nsamples = 7\nvalue = [0, 7, 0, 0]", fillcolor="#47e539ff"] ;
110 -> 128 ;
129 [label="X[12] <= 0.5\ngini = 0.419\nsamples = 84\nvalue = [61, 4, 19, 0]", fillcolor="#e58139a5"] ;
109 -> 129 ;
130 [label="X[6] <= 30.0\ngini = 0.569\nsamples = 47\nvalue = [24, 4, 19, 0]", fillcolor="#e581392e"] ;
129 -> 130 ;
131 [label="X[9] <= 19.0\ngini = 0.575\nsamples = 35\nvalue = [12, 4, 19, 0]", fillcolor="#399de54e"] ;
130 -> 131 ;
132 [label="X[19] <= 79.5\ngini = 0.327\nsamples = 21\nvalue = [2, 2, 17, 0]", fillcolor="#399de5c9"] ;
131 -> 132 ;
133 [label="X[1] <= 1596.5\ngini = 0.188\nsamples = 19\nvalue = [0, 2, 17, 0]", fillcolor="#399de5e1"] ;
132 -> 133 ;
134 [label="gini = 0.0\nsamples = 17\nvalue = [0, 0, 17, 0]", fillcolor="#399de5ff"] ;
133 -> 134 ;
135 [label="gini = 0.0\nsamples = 2\nvalue = [0, 2, 0, 0]", fillcolor="#47e539ff"] ;
133 -> 135 ;
136 [label="gini = 0.0\nsamples = 2\nvalue = [2, 0, 0, 0]", fillcolor="#e58139ff"] ;
132 -> 136 ;
137 [label="X[19] <= 25.5\ngini = 0.449\nsamples = 14\nvalue = [10, 2, 2, 0]", fillcolor="#e58139aa"] ;
131 -> 137 ;
138 [label="gini = 0.0\nsamples = 10\nvalue = [10, 0, 0, 0]", fillcolor="#e58139ff"] ;
137 -> 138 ;
139 [label="X[2] <= 0.5\ngini = 0.5\nsamples = 4\nvalue = [0, 2, 2, 0]", fillcolor="#47e53900"] ;
137 -> 139 ;
140 [label="gini = 0.0\nsamples = 2\nvalue = [0, 0, 2, 0]", fillcolor="#399de5ff"] ;
139 -> 140 ;
141 [label="gini = 0.0\nsamples = 2\nvalue = [0, 2, 0, 0]", fillcolor="#47e539ff"] ;
139 -> 141 ;
142 [label="gini = 0.0\nsamples = 12\nvalue = [12, 0, 0, 0]", fillcolor="#e58139ff"] ;
130 -> 142 ;
143 [label="gini = 0.0\nsamples = 37\nvalue = [37, 0, 0, 0]", fillcolor="#e58139ff"] ;
129 -> 143 ;
144 [label="X[6] <= 18.5\ngini = 0.358\nsamples = 286\nvalue = [225, 27, 34, 0]", fillcolor="#e58139c1"] ;
108 -> 144 ;
145 [label="X[18] <= 110.0\ngini = 0.466\nsamples = 183\nvalue = [128, 27, 28, 0]", fillcolor="#e58139a5"] ;
144 -> 145 ;
146 [label="X[21] <= 0.05\ngini = 0.649\nsamples = 21\nvalue = [5, 9, 7, 0]", fillcolor="#47e53924"] ;
145 -> 146 ;
147 [label="gini = 0.0\nsamples = 5\nvalue = [0, 0, 5, 0]", fillcolor="#399de5ff"] ;
146 -> 147 ;
148 [label="X[18] <= 7.5\ngini = 0.57\nsamples = 16\nvalue = [5, 9, 2, 0]", fillcolor="#47e5395d"] ;
146 -> 148 ;
149 [label="gini = 0.0\nsamples = 4\nvalue = [4, 0, 0, 0]", fillcolor="#e58139ff"] ;
148 -> 149 ;
150 [label="X[19] <= 4.5\ngini = 0.403\nsamples = 12\nvalue = [1, 9, 2, 0]", fillcolor="#47e539b2"] ;
148 -> 150 ;
151 [label="X[5] <= 392.5\ngini = 0.444\nsamples = 3\nvalue = [1, 0, 2, 0]", fillcolor="#399de57f"] ;
150 -> 151 ;
152 [label="gini = 0.0\nsamples = 2\nvalue = [0, 0, 2, 0]", fillcolor="#399de5ff"] ;
151 -> 152 ;
153 [label="gini = 0.0\nsamples = 1\nvalue = [1, 0, 0, 0]", fillcolor="#e58139ff"] ;
151 -> 153 ;
154 [label="gini = 0.0\nsamples = 9\nvalue = [0, 9, 0, 0]", fillcolor="#47e539ff"] ;
150 -> 154 ;
155 [label="X[19] <= 45.5\ngini = 0.394\nsamples = 162\nvalue = [123, 18, 21, 0]", fillcolor="#e58139b8"] ;
145 -> 155 ;
156 [label="X[16] <= 15.5\ngini = 0.259\nsamples = 124\nvalue = [106, 8, 10, 0]", fillcolor="#e58139d7"] ;
155 -> 156 ;
157 [label="X[1] <= 211.5\ngini = 0.224\nsamples = 121\nvalue = [106, 5, 10, 0]", fillcolor="#e58139dd"] ;
156 -> 157 ;
158 [label="gini = 0.0\nsamples = 2\nvalue = [0, 0, 2, 0]", fillcolor="#399de5ff"] ;
157 -> 158 ;
159 [label="X[2] <= 0.5\ngini = 0.2\nsamples = 119\nvalue = [106, 5, 8, 0]", fillcolor="#e58139e1"] ;
157 -> 159 ;
160 [label="X[1] <= 1101.5\ngini = 0.399\nsamples = 53\nvalue = [40, 5, 8, 0]", fillcolor="#e58139b5"] ;
159 -> 160 ;
161 [label="X[19] <= 2.0\ngini = 0.333\nsamples = 50\nvalue = [40, 2, 8, 0]", fillcolor="#e58139c2"] ;
160 -> 161 ;
162 [label="gini = 0.0\nsamples = 2\nvalue = [0, 0, 2, 0]", fillcolor="#399de5ff"] ;
161 -> 162 ;
163 [label="X[1] <= 467.0\ngini = 0.288\nsamples = 48\nvalue = [40, 2, 6, 0]", fillcolor="#e58139ce"] ;
161 -> 163 ;
164 [label="X[13] <= 5.5\ngini = 0.54\nsamples = 20\nvalue = [12, 2, 6, 0]", fillcolor="#e581396d"] ;
163 -> 164 ;
165 [label="X[18] <= 226.5\ngini = 0.56\nsamples = 10\nvalue = [2, 2, 6, 0]", fillcolor="#399de57f"] ;
164 -> 165 ;
166 [label="X[10] <= 3.0\ngini = 0.5\nsamples = 4\nvalue = [2, 2, 0, 0]", fillcolor="#e5813900"] ;
165 -> 166 ;
167 [label="gini = 0.0\nsamples = 2\nvalue = [2, 0, 0, 0]", fillcolor="#e58139ff"] ;
166 -> 167 ;
168 [label="gini = 0.0\nsamples = 2\nvalue = [0, 2, 0, 0]", fillcolor="#47e539ff"] ;
166 -> 168 ;
169 [label="gini = 0.0\nsamples = 6\nvalue = [0, 0, 6, 0]", fillcolor="#399de5ff"] ;
165 -> 169 ;
170 [label="gini = 0.0\nsamples = 10\nvalue = [10, 0, 0, 0]", fillcolor="#e58139ff"] ;
164 -> 170 ;
171 [label="gini = 0.0\nsamples = 28\nvalue = [28, 0, 0, 0]", fillcolor="#e58139ff"] ;
163 -> 171 ;
172 [label="gini = 0.0\nsamples = 3\nvalue = [0, 3, 0, 0]", fillcolor="#47e539ff"] ;
160 -> 172 ;
173 [label="gini = 0.0\nsamples = 66\nvalue = [66, 0, 0, 0]", fillcolor="#e58139ff"] ;
159 -> 173 ;
174 [label="gini = 0.0\nsamples = 3\nvalue = [0, 3, 0, 0]", fillcolor="#47e539ff"] ;
156 -> 174 ;
175 [label="X[1] <= 562.0\ngini = 0.647\nsamples = 38\nvalue = [17, 10, 11, 0]", fillcolor="#e5813939"] ;
155 -> 175 ;
176 [label="gini = 0.0\nsamples = 7\nvalue = [0, 0, 7, 0]", fillcolor="#399de5ff"] ;
175 -> 176 ;
177 [label="X[12] <= 41.5\ngini = 0.579\nsamples = 31\nvalue = [17, 10, 4, 0]", fillcolor="#e5813955"] ;
175 -> 177 ;
178 [label="X[17] <= 1.0\ngini = 0.503\nsamples = 28\nvalue = [17, 10, 1, 0]", fillcolor="#e5813963"] ;
177 -> 178 ;
179 [label="X[18] <= 542.5\ngini = 0.542\nsamples = 12\nvalue = [4, 7, 1, 0]", fillcolor="#47e53960"] ;
178 -> 179 ;
180 [label="gini = 0.0\nsamples = 4\nvalue = [4, 0, 0, 0]", fillcolor="#e58139ff"] ;
179 -> 180 ;
181 [label="X[18] <= 2582.0\ngini = 0.219\nsamples = 8\nvalue = [0, 7, 1, 0]", fillcolor="#47e539db"] ;
179 -> 181 ;
182 [label="gini = 0.0\nsamples = 7\nvalue = [0, 7, 0, 0]", fillcolor="#47e539ff"] ;
181 -> 182 ;
183 [label="gini = 0.0\nsamples = 1\nvalue = [0, 0, 1, 0]", fillcolor="#399de5ff"] ;
181 -> 183 ;
184 [label="X[17] <= 69.5\ngini = 0.305\nsamples = 16\nvalue = [13, 3, 0, 0]", fillcolor="#e58139c4"] ;
178 -> 184 ;
185 [label="gini = 0.0\nsamples = 13\nvalue = [13, 0, 0, 0]", fillcolor="#e58139ff"] ;
184 -> 185 ;
186 [label="gini = 0.0\nsamples = 3\nvalue = [0, 3, 0, 0]", fillcolor="#47e539ff"] ;
184 -> 186 ;
187 [label="gini = 0.0\nsamples = 3\nvalue = [0, 0, 3, 0]", fillcolor="#399de5ff"] ;
177 -> 187 ;
188 [label="X[19] <= 123.5\ngini = 0.11\nsamples = 103\nvalue = [97, 0, 6, 0]", fillcolor="#e58139ef"] ;
144 -> 188 ;
189 [label="X[8] <= 40.5\ngini = 0.076\nsamples = 101\nvalue = [97, 0, 4, 0]", fillcolor="#e58139f4"] ;
188 -> 189 ;
190 [label="X[8] <= 11.5\ngini = 0.04\nsamples = 99\nvalue = [97, 0, 2, 0]", fillcolor="#e58139fa"] ;
189 -> 190 ;
191 [label="gini = 0.0\nsamples = 89\nvalue = [89, 0, 0, 0]", fillcolor="#e58139ff"] ;
190 -> 191 ;
192 [label="X[14] <= 2.0\ngini = 0.32\nsamples = 10\nvalue = [8, 0, 2, 0]", fillcolor="#e58139bf"] ;
190 -> 192 ;
193 [label="gini = 0.0\nsamples = 2\nvalue = [0, 0, 2, 0]", fillcolor="#399de5ff"] ;
192 -> 193 ;
194 [label="gini = 0.0\nsamples = 8\nvalue = [8, 0, 0, 0]", fillcolor="#e58139ff"] ;
192 -> 194 ;
195 [label="gini = 0.0\nsamples = 2\nvalue = [0, 0, 2, 0]", fillcolor="#399de5ff"] ;
189 -> 195 ;
196 [label="gini = 0.0\nsamples = 2\nvalue = [0, 0, 2, 0]", fillcolor="#399de5ff"] ;
188 -> 196 ;
{rank=same ; 0} ;
{rank=same ; 1; 108} ;
{rank=same ; 19; 34; 43; 59; 88; 93; 121; 163} ;
{rank=same ; 20; 23; 35; 44; 51; 60; 89; 164} ;
{rank=same ; 37; 45; 52; 55; 61; 165} ;
{rank=same ; 38; 47; 166} ;
{rank=same ; 2; 9; 109; 144} ;
{rank=same ; 3; 10; 79; 110; 129; 145; 188} ;
{rank=same ; 4; 11; 76; 81; 111; 130; 146; 155; 189} ;
{rank=same ; 12; 73; 82; 101; 112; 131; 148; 156; 175; 190} ;
{rank=same ; 13; 30; 83; 102; 105; 113; 132; 137; 150; 157; 177; 192} ;
{rank=same ; 14; 27; 31; 70; 85; 114; 133; 139; 151; 159; 178} ;
{rank=same ; 15; 32; 67; 86; 116; 160; 179; 184} ;
{rank=same ; 17; 33; 58; 87; 96; 117; 120; 161; 181} ;
{rank=same ; 5; 6; 7; 8; 16; 18; 21; 22; 24; 25; 26; 28; 29; 36; 39; 40; 41; 42; 46; 48; 49; 50; 53; 54; 56; 57; 62; 63; 64; 65; 66; 68; 69; 71; 72; 74; 75; 77; 78; 80; 84; 90; 91; 92; 94; 95; 97; 98; 99; 100; 103; 104; 106; 107; 115; 118; 119; 122; 123; 124; 125; 126; 127; 128; 134; 135; 136; 138; 140; 141; 142; 143; 147; 149; 152; 153; 154; 158; 162; 167; 168; 169; 170; 171; 172; 173; 174; 176; 180; 182; 183; 185; 186; 187; 191; 193; 194; 195; 196} ;
}